36.617634 -6.910916 -29.427473 42.873928 25.331889 -11.000397 -12.526322 5.796991 13.072604 44.106876 23.625904 23.604541 -11.128574 5.018769 48.022401 12.797937 -17.232276 -6.996368 12.733848 19.566942 -0.987274 16.838588 -23.165075 -39.526048 -43.481246 -36.022523 -4.603717 -31.972716 14.650410 35.677664 -23.390912 31.759087 12.489700 41.680654 -39.773247 -24.581133 -0.285348 20.113224 20.412305 -39.040803 -12.800989 -1.820429 46.102786 -40.115055 -4.548784 -40.682699 2.073733 -17.403180 29.052095 32.415235 23.781549 6.395154 -44.827113 -31.264687 49.087497 -7.280190 14.342174 22.142705 40.075381 34.295175 41.534165 -1.701407 -2.018799 22.750023 25.771355 -11.604663 24.462111 -22.600482 -13.710440 -46.877956 32.226020 25.789666 -6.532487 -27.571947 -41.753899 -23.427534 12.569048 26.726585 -17.384869 -24.529252 -1.503037 25.188452 6.193731 -15.208899 19.631031 46.713157 -9.831538 -22.731712 38.888211 9.236427 10.661641 -15.263833 30.141606 32.976775 31.499680 -7.658620 -41.872921 13.240455 48.254341 18.868068 -0.071718 -31.572924 6.727805 -26.161992 36.199530 -21.108127 48.956267 31.994079 -9.749138 -17.827387 -10.133671 15.758232 43.087558 40.386670 -22.231208 26.366466 2.571184 45.226905 41.702017 14.244514 -45.208594 -23.644215 -21.135594 29.247414 -24.193548 -21.297342 -14.809107 41.439558 31.847591 -25.661489 -17.784661 -27.016511 46.118046 -25.450911 43.359172 31.798761 -39.660329 7.725761 -27.263710 -12.404248 -30.858791 28.710288 39.672536 -19.075594 -44.582965 25.203711 21.929075 5.848872 4.792932 -13.139744 -39.059114 -43.111972 27.312540 -47.274697 -17.986084 -19.167150 -35.503708 2.592547 -17.278054 24.071474 9.849849 7.954649 42.587054 16.045106 20.979949 8.128605 -42.822047 -20.525224 -48.538163 27.217933 49.743645 7.954649 -19.475387 -2.488784 -36.504715 1.561022 -31.276894 4.957732 -12.276070 1.094089 17.732780 22.325816 20.766320 11.580248 -37.664418 45.696890 23.064364 -44.363231 -27.205725 -0.117496 -36.632893 47.393719 -4.332102 28.463088 11.223182 27.471236 11.259804 33.938108 -21.123386 49.804682 35.763115 -16.219062 -34.270760 -39.230018 46.292001 47.885067 8.439894 -38.616596 -43.151646 -16.905728 -10.176397 -6.913968 23.442793 30.455947 9.669790 37.810907 6.367687 40.734581 -29.409162 -27.077548 